<?xml version="1.0"?>
<opencv_storage>
<stage42>
  <maxWeakCount>22</maxWeakCount>
  <stageThreshold>-1.0822299718856812e+00</stageThreshold>
  <weakClassifiers>
    <_>
      <internalNodes>
        0 -1 77397 1.7653629183769226e-02</internalNodes>
      <leafValues>
        -3.8840070366859436e-01 6.7741936445236206e-01</leafValues></_>
    <_>
      <internalNodes>
        0 -1 137154 1.2802701443433762e-02</internalNodes>
      <leafValues>
        4.2522072792053223e-02 -7.0023024082183838e-01</leafValues></_>
    <_>
      <internalNodes>
        0 -1 130322 1.1853555217385292e-02</internalNodes>
      <leafValues>
        -9.2631682753562927e-02 5.8848929405212402e-01</leafValues></_>
    <_>
      <internalNodes>
        0 -1 140794 -1.8574439454823732e-03</internalNodes>
      <leafValues>
        1.9337019324302673e-01 -2.9358702898025513e-01</leafValues></_>
    <_>
      <internalNodes>
        0 -1 106788 -7.4335705721750855e-04</internalNodes>
      <leafValues>
        -4.5131975412368774e-01 1.2934997677803040e-01</leafValues></_>
    <_>
      <internalNodes>
        0 -1 139187 3.6875032819807529e-03</internalNodes>
      <leafValues>
        1.2841528654098511e-01 -5.3558027744293213e-01</leafValues></_>
    <_>
      <internalNodes>
        0 -1 143930 -6.6834222525358200e-03</internalNodes>
      <leafValues>
        6.2131351232528687e-01 -1.1651939153671265e-01</leafValues></_>
    <_>
      <internalNodes>
        0 -1 121023 1.6595129272900522e-04</internalNodes>
      <leafValues>
        -1.7259003221988678e-01 2.8227561712265015e-01</leafValues></_>
    <_>
      <internalNodes>
        0 -1 154725 2.0694531500339508e-02</internalNodes>
      <leafValues>
        -7.7031672000885010e-02 5.6785219907760620e-01</leafValues></_>
    <_>
      <internalNodes>
        0 -1 108636 -2.7611248660832644e-03</internalNodes>
      <leafValues>
        -3.7638500332832336e-01 1.3422220945358276e-01</leafValues></_>
    <_>
      <internalNodes>
        0 -1 75831 -1.6644950956106186e-03</internalNodes>
      <leafValues>
        3.5949879884719849e-01 -1.4775489270687103e-01</leafValues></_>
    <_>
      <internalNodes>
        0 -1 102734 -2.6644864119589329e-03</internalNodes>
      <leafValues>
        -5.2558135986328125e-01 9.2444628477096558e-02</leafValues></_>
    <_>
      <internalNodes>
        0 -1 87191 2.1592271514236927e-03</internalNodes>
      <leafValues>
        1.0223230719566345e-01 -4.8015311360359192e-01</leafValues></_>
    <_>
      <internalNodes>
        0 -1 122164 1.2920390814542770e-02</internalNodes>
      <leafValues>
        -1.4192734658718109e-01 3.7510526180267334e-01</leafValues></_>
    <_>
      <internalNodes>
        0 -1 84747 3.8353800773620605e-03</internalNodes>
      <leafValues>
        -1.5133146941661835e-01 4.2077344655990601e-01</leafValues></_>
    <_>
      <internalNodes>
        0 -1 19571 2.2912319764145650e-05</internalNodes>
      <leafValues>
        -2.2249564528465271e-01 2.5081580877304077e-01</leafValues></_>
    <_>
      <internalNodes>
        0 -1 61025 1.3274541497230530e-01</internalNodes>
      <leafValues>
        1.2768860161304474e-01 -4.0696927905082703e-01</leafValues></_>
    <_>
      <internalNodes>
        0 -1 110278 4.8861159011721611e-03</internalNodes>
      <leafValues>
        -1.6576130688190460e-01 3.4856811165809631e-01</leafValues></_>
    <_>
      <internalNodes>
        0 -1 156417 -1.6664366703480482e-03</internalNodes>
      <leafValues>
        -4.6158644556999207e-01 1.0695251077413559e-01</leafValues></_>
    <_>
      <internalNodes>
        0 -1 100562 -4.1156829684041440e-04</internalNodes>
      <leafValues>
        4.1464892029762268e-01 -1.3737328350543976e-01</leafValues></_>
    <_>
      <internalNodes>
        0 -1 151883 -8.2779387012124062e-03</internalNodes>
      <leafValues>
        9.4802004098892212e-01 -5.4838575422763824e-02</leafValues></_>
    <_>
      <internalNodes>
        0 -1 161612 -2.6593260467052460e-02</internalNodes>
      <leafValues>
        -7.4408328533172607e-01 8.6464352905750275e-02</leafValues></_></weakClassifiers></stage42>
</opencv_storage>
