<?xml version="1.0"?>
<opencv_storage>
<stage14>
  <maxWeakCount>16</maxWeakCount>
  <stageThreshold>-1.0019218921661377e+00</stageThreshold>
  <weakClassifiers>
    <_>
      <internalNodes>
        0 -1 155254 -3.8685396313667297e-02</internalNodes>
      <leafValues>
        2.9268291592597961e-01 -4.3243244290351868e-01</leafValues></_>
    <_>
      <internalNodes>
        0 -1 56131 -3.3301781862974167e-02</internalNodes>
      <leafValues>
        2.6569706201553345e-01 -2.6766777038574219e-01</leafValues></_>
    <_>
      <internalNodes>
        0 -1 673 4.6785846352577209e-02</internalNodes>
      <leafValues>
        -2.1259857714176178e-01 3.5717824101448059e-01</leafValues></_>
    <_>
      <internalNodes>
        0 -1 157434 1.2701964005827904e-03</internalNodes>
      <leafValues>
        1.1189340054988861e-01 -5.7046604156494141e-01</leafValues></_>
    <_>
      <internalNodes>
        0 -1 121761 -6.3082352280616760e-02</internalNodes>
      <leafValues>
        3.3053699135780334e-01 -1.9595073163509369e-01</leafValues></_>
    <_>
      <internalNodes>
        0 -1 151731 -8.9117907918989658e-04</internalNodes>
      <leafValues>
        1.1522977054119110e-01 -6.9346374273300171e-01</leafValues></_>
    <_>
      <internalNodes>
        0 -1 49196 -4.0939711034297943e-03</internalNodes>
      <leafValues>
        -5.1503866910934448e-01 1.1906427145004272e-01</leafValues></_>
    <_>
      <internalNodes>
        0 -1 20993 5.2280351519584656e-03</internalNodes>
      <leafValues>
        9.7754724323749542e-02 -6.2894177436828613e-01</leafValues></_>
    <_>
      <internalNodes>
        0 -1 2380 -2.0161429047584534e-01</internalNodes>
      <leafValues>
        5.5765753984451294e-01 -1.3898764550685883e-01</leafValues></_>
    <_>
      <internalNodes>
        0 -1 37218 -7.3990439996123314e-03</internalNodes>
      <leafValues>
        -2.6590776443481445e-01 3.3747449517250061e-01</leafValues></_>
    <_>
      <internalNodes>
        0 -1 12561 -4.8814620822668076e-03</internalNodes>
      <leafValues>
        -5.4281818866729736e-01 1.2328137457370758e-01</leafValues></_>
    <_>
      <internalNodes>
        0 -1 119426 -7.6698185876011848e-03</internalNodes>
      <leafValues>
        7.9512417316436768e-02 -7.7725178003311157e-01</leafValues></_>
    <_>
      <internalNodes>
        0 -1 59496 -1.3808642979711294e-03</internalNodes>
      <leafValues>
        6.6485084593296051e-02 -7.9500699043273926e-01</leafValues></_>
    <_>
      <internalNodes>
        0 -1 162076 -3.7962041096761823e-04</internalNodes>
      <leafValues>
        -9.0174496173858643e-02 9.7704905271530151e-01</leafValues></_>
    <_>
      <internalNodes>
        0 -1 48508 1.0782642289996147e-02</internalNodes>
      <leafValues>
        9.8212711513042450e-02 -9.1122728586196899e-01</leafValues></_>
    <_>
      <internalNodes>
        0 -1 29710 2.2883463650941849e-02</internalNodes>
      <leafValues>
        -2.7217847108840942e-01 2.6731929183006287e-01</leafValues></_></weakClassifiers></stage14>
</opencv_storage>
