<?xml version="1.0"?>
<opencv_storage>
<stage8>
  <maxWeakCount>13</maxWeakCount>
  <stageThreshold>-1.0346310138702393e+00</stageThreshold>
  <weakClassifiers>
    <_>
      <internalNodes>
        0 -1 25600 -1.0715713351964951e-01</internalNodes>
      <leafValues>
        -6.6968327760696411e-01 6.0759490728378296e-01</leafValues></_>
    <_>
      <internalNodes>
        0 -1 1182 -6.7917052656412125e-03</internalNodes>
      <leafValues>
        -2.2542019188404083e-01 8.4766894578933716e-01</leafValues></_>
    <_>
      <internalNodes>
        0 -1 115650 -2.9438164085149765e-02</internalNodes>
      <leafValues>
        -7.8676629066467285e-01 1.0302495956420898e-01</leafValues></_>
    <_>
      <internalNodes>
        0 -1 162205 -2.9877058696001768e-03</internalNodes>
      <leafValues>
        -5.9555239975452423e-02 9.2641705274581909e-01</leafValues></_>
    <_>
      <internalNodes>
        0 -1 151732 -1.9600446103140712e-04</internalNodes>
      <leafValues>
        4.6396732330322266e-01 -1.9323958456516266e-01</leafValues></_>
    <_>
      <internalNodes>
        0 -1 848 -2.4365277588367462e-01</internalNodes>
      <leafValues>
        7.2061181068420410e-01 -1.4206124842166901e-01</leafValues></_>
    <_>
      <internalNodes>
        0 -1 93492 3.8005493581295013e-02</internalNodes>
      <leafValues>
        -2.5569120049476624e-01 4.3422576785087585e-01</leafValues></_>
    <_>
      <internalNodes>
        0 -1 22927 -1.1713036894798279e-01</internalNodes>
      <leafValues>
        -1.0501850396394730e-01 7.5029575824737549e-01</leafValues></_>
    <_>
      <internalNodes>
        0 -1 111430 -1.5329464804381132e-04</internalNodes>
      <leafValues>
        4.2994904518127441e-01 -2.2211742401123047e-01</leafValues></_>
    <_>
      <internalNodes>
        0 -1 102226 5.4559912532567978e-03</internalNodes>
      <leafValues>
        9.8541818559169769e-02 -1.</leafValues></_>
    <_>
      <internalNodes>
        0 -1 809 1.1573569849133492e-02</internalNodes>
      <leafValues>
        7.8882120549678802e-02 -8.8762116432189941e-01</leafValues></_>
    <_>
      <internalNodes>
        0 -1 79281 4.4653629884123802e-03</internalNodes>
      <leafValues>
        1.0204733163118362e-01 -7.5552886724472046e-01</leafValues></_>
    <_>
      <internalNodes>
        0 -1 89254 -2.5320684071630239e-03</internalNodes>
      <leafValues>
        5.3410446643829346e-01 -1.9640707969665527e-01</leafValues></_></weakClassifiers></stage8>
</opencv_storage>
