<?xml version="1.0"?>
<opencv_storage>
<stage37>
  <maxWeakCount>19</maxWeakCount>
  <stageThreshold>-8.9686167240142822e-01</stageThreshold>
  <weakClassifiers>
    <_>
      <internalNodes>
        0 -1 55885 2.6392687112092972e-02</internalNodes>
      <leafValues>
        -4.0000000596046448e-01 4.0000000596046448e-01</leafValues></_>
    <_>
      <internalNodes>
        0 -1 150400 -4.3288685381412506e-02</internalNodes>
      <leafValues>
        -2.5385555624961853e-01 2.3642586171627045e-01</leafValues></_>
    <_>
      <internalNodes>
        0 -1 124729 1.8679222557693720e-04</internalNodes>
      <leafValues>
        -1.3698419928550720e-01 3.5375979542732239e-01</leafValues></_>
    <_>
      <internalNodes>
        0 -1 116142 -1.5988852828741074e-02</internalNodes>
      <leafValues>
        6.6026669740676880e-01 -8.3335772156715393e-02</leafValues></_>
    <_>
      <internalNodes>
        0 -1 96217 -2.0509380847215652e-03</internalNodes>
      <leafValues>
        4.4816830754280090e-01 -1.0960574448108673e-01</leafValues></_>
    <_>
      <internalNodes>
        0 -1 143780 -8.6912997066974640e-03</internalNodes>
      <leafValues>
        5.7261407375335693e-01 -9.8856396973133087e-02</leafValues></_>
    <_>
      <internalNodes>
        0 -1 24788 1.2283085845410824e-02</internalNodes>
      <leafValues>
        1.0047920793294907e-01 -5.3392463922500610e-01</leafValues></_>
    <_>
      <internalNodes>
        0 -1 127936 6.0744141228497028e-04</internalNodes>
      <leafValues>
        -9.5431581139564514e-02 5.1279056072235107e-01</leafValues></_>
    <_>
      <internalNodes>
        0 -1 88833 7.7344570308923721e-04</internalNodes>
      <leafValues>
        -1.4572852849960327e-01 3.8090538978576660e-01</leafValues></_>
    <_>
      <internalNodes>
        0 -1 114365 1.1561140418052673e-03</internalNodes>
      <leafValues>
        1.0114921629428864e-01 -5.3048717975616455e-01</leafValues></_>
    <_>
      <internalNodes>
        0 -1 8253 -5.0886692479252815e-03</internalNodes>
      <leafValues>
        3.2134380936622620e-01 -1.7783150076866150e-01</leafValues></_>
    <_>
      <internalNodes>
        0 -1 66521 3.8920738734304905e-03</internalNodes>
      <leafValues>
        -1.9862709939479828e-01 3.2469063997268677e-01</leafValues></_>
    <_>
      <internalNodes>
        0 -1 119023 -8.8255084119737148e-04</internalNodes>
      <leafValues>
        -4.3663701415061951e-01 1.4005377888679504e-01</leafValues></_>
    <_>
      <internalNodes>
        0 -1 102215 2.1442392608150840e-04</internalNodes>
      <leafValues>
        -2.0431213080883026e-01 2.6954019069671631e-01</leafValues></_>
    <_>
      <internalNodes>
        0 -1 144289 3.3244401216506958e-02</internalNodes>
      <leafValues>
        -1.2870253622531891e-01 4.9779218435287476e-01</leafValues></_>
    <_>
      <internalNodes>
        0 -1 118776 5.1773502491414547e-04</internalNodes>
      <leafValues>
        -2.4551363289356232e-01 2.7814868092536926e-01</leafValues></_>
    <_>
      <internalNodes>
        0 -1 144207 -7.6308473944664001e-04</internalNodes>
      <leafValues>
        -2.3039443790912628e-01 2.5638169050216675e-01</leafValues></_>
    <_>
      <internalNodes>
        0 -1 159675 5.3528207354247570e-04</internalNodes>
      <leafValues>
        1.3512532413005829e-01 -4.1586536169052124e-01</leafValues></_>
    <_>
      <internalNodes>
        0 -1 150660 -1.2858040281571448e-04</internalNodes>
      <leafValues>
        3.2334876060485840e-01 -2.0492330193519592e-01</leafValues></_></weakClassifiers></stage37>
</opencv_storage>
