<?xml version="1.0"?>
<opencv_storage>
<stage21>
  <maxWeakCount>12</maxWeakCount>
  <stageThreshold>-1.0699731111526489e+00</stageThreshold>
  <weakClassifiers>
    <_>
      <internalNodes>
        0 -1 128484 7.0332594215869904e-02</internalNodes>
      <leafValues>
        -4.8654243350028992e-01 2.9914531111717224e-01</leafValues></_>
    <_>
      <internalNodes>
        0 -1 13340 -4.4454507529735565e-02</internalNodes>
      <leafValues>
        4.0444844961166382e-01 -2.3373463749885559e-01</leafValues></_>
    <_>
      <internalNodes>
        0 -1 26242 -6.6661596298217773e-02</internalNodes>
      <leafValues>
        -1.0525568574666977e-01 6.7800521850585938e-01</leafValues></_>
    <_>
      <internalNodes>
        0 -1 13180 -6.9710996467620134e-04</internalNodes>
      <leafValues>
        6.9494634866714478e-01 -8.3615593612194061e-02</leafValues></_>
    <_>
      <internalNodes>
        0 -1 70270 3.2940116943791509e-04</internalNodes>
      <leafValues>
        -1.4586003124713898e-01 4.5500901341438293e-01</leafValues></_>
    <_>
      <internalNodes>
        0 -1 96565 2.6830710470676422e-02</internalNodes>
      <leafValues>
        -1.0389238595962524e-01 6.3631367683410645e-01</leafValues></_>
    <_>
      <internalNodes>
        0 -1 114361 1.9786113989539444e-04</internalNodes>
      <leafValues>
        -1.3937267661094666e-01 4.2408099770545959e-01</leafValues></_>
    <_>
      <internalNodes>
        0 -1 24415 -2.4837632736307569e-05</internalNodes>
      <leafValues>
        2.6589554548263550e-01 -2.5475609302520752e-01</leafValues></_>
    <_>
      <internalNodes>
        0 -1 113931 1.2311453465372324e-03</internalNodes>
      <leafValues>
        -1.3379432260990143e-01 5.3048312664031982e-01</leafValues></_>
    <_>
      <internalNodes>
        0 -1 1424 7.4570879340171814e-02</internalNodes>
      <leafValues>
        8.1231765449047089e-02 -8.6945271492004395e-01</leafValues></_>
    <_>
      <internalNodes>
        0 -1 113767 -2.5505947633064352e-05</internalNodes>
      <leafValues>
        2.6330000162124634e-01 -2.5544556975364685e-01</leafValues></_>
    <_>
      <internalNodes>
        0 -1 125067 -1.9890293478965759e-03</internalNodes>
      <leafValues>
        -5.1284790039062500e-01 1.5434260666370392e-01</leafValues></_></weakClassifiers></stage21>
</opencv_storage>
