<?xml version="1.0"?>
<opencv_storage>
<stage15>
  <maxWeakCount>16</maxWeakCount>
  <stageThreshold>-8.7873232364654541e-01</stageThreshold>
  <weakClassifiers>
    <_>
      <internalNodes>
        0 -1 782 -9.3693673610687256e-02</internalNodes>
      <leafValues>
        -3.9750444889068604e-01 5.8974361419677734e-01</leafValues></_>
    <_>
      <internalNodes>
        0 -1 6102 -3.9494093507528305e-02</internalNodes>
      <leafValues>
        6.7569714784622192e-01 -1.4633448421955109e-01</leafValues></_>
    <_>
      <internalNodes>
        0 -1 161510 -1.7498299712315202e-03</internalNodes>
      <leafValues>
        -7.7303153276443481e-01 1.3413964211940765e-01</leafValues></_>
    <_>
      <internalNodes>
        0 -1 20658 -3.7238024175167084e-02</internalNodes>
      <leafValues>
        2.7115827798843384e-01 -2.3558488488197327e-01</leafValues></_>
    <_>
      <internalNodes>
        0 -1 13014 8.1325217615813017e-04</internalNodes>
      <leafValues>
        1.1438592523336411e-01 -5.3778713941574097e-01</leafValues></_>
    <_>
      <internalNodes>
        0 -1 70445 -3.2114894129335880e-03</internalNodes>
      <leafValues>
        8.9609794318675995e-02 -7.4656337499618530e-01</leafValues></_>
    <_>
      <internalNodes>
        0 -1 157599 2.0943498238921165e-03</internalNodes>
      <leafValues>
        7.5105376541614532e-02 -5.7353556156158447e-01</leafValues></_>
    <_>
      <internalNodes>
        0 -1 70463 1.2775832787156105e-02</internalNodes>
      <leafValues>
        9.6177533268928528e-02 -6.9160032272338867e-01</leafValues></_>
    <_>
      <internalNodes>
        0 -1 6834 -4.4898143969476223e-03</internalNodes>
      <leafValues>
        -4.9624085426330566e-01 1.0341063141822815e-01</leafValues></_>
    <_>
      <internalNodes>
        0 -1 12280 -4.4140312820672989e-03</internalNodes>
      <leafValues>
        -8.1812894344329834e-01 7.9360827803611755e-02</leafValues></_>
    <_>
      <internalNodes>
        0 -1 77792 1.0235270857810974e-01</internalNodes>
      <leafValues>
        -9.9159993231296539e-02 8.5837626457214355e-01</leafValues></_>
    <_>
      <internalNodes>
        0 -1 96380 -1.6954636201262474e-02</internalNodes>
      <leafValues>
        2.2425562143325806e-01 -3.2935029268264771e-01</leafValues></_>
    <_>
      <internalNodes>
        0 -1 80614 -2.8905030339956284e-03</internalNodes>
      <leafValues>
        -3.8433113694190979e-01 1.5328219532966614e-01</leafValues></_>
    <_>
      <internalNodes>
        0 -1 106634 -4.5137152075767517e-02</internalNodes>
      <leafValues>
        -8.1259006261825562e-01 7.0888392627239227e-02</leafValues></_>
    <_>
      <internalNodes>
        0 -1 127567 -7.2631738148629665e-03</internalNodes>
      <leafValues>
        2.7095368504524231e-01 -2.6215463876724243e-01</leafValues></_>
    <_>
      <internalNodes>
        0 -1 110594 -1.4663568697869778e-02</internalNodes>
      <leafValues>
        3.5788401961326599e-01 -1.9556659460067749e-01</leafValues></_></weakClassifiers></stage15>
</opencv_storage>
