<?xml version="1.0"?>
<opencv_storage>
<stage24>
  <maxWeakCount>23</maxWeakCount>
  <stageThreshold>-8.6293619871139526e-01</stageThreshold>
  <weakClassifiers>
    <_>
      <internalNodes>
        0 -1 154759 6.9445755798369646e-04</internalNodes>
      <leafValues>
        -4.1406250000000000e-01 1.3636364042758942e-01</leafValues></_>
    <_>
      <internalNodes>
        0 -1 155312 1.3846275396645069e-03</internalNodes>
      <leafValues>
        7.8843228518962860e-02 -4.9602138996124268e-01</leafValues></_>
    <_>
      <internalNodes>
        0 -1 136395 5.9855673462152481e-02</internalNodes>
      <leafValues>
        -1.1141468584537506e-01 4.2735233902931213e-01</leafValues></_>
    <_>
      <internalNodes>
        0 -1 150508 -7.8534777276217937e-04</internalNodes>
      <leafValues>
        3.0340704321861267e-01 -1.3848207890987396e-01</leafValues></_>
    <_>
      <internalNodes>
        0 -1 95237 -4.5639821328222752e-03</internalNodes>
      <leafValues>
        -1. 1.3078577816486359e-02</leafValues></_>
    <_>
      <internalNodes>
        0 -1 149968 -4.1340932250022888e-02</internalNodes>
      <leafValues>
        -9.1454243659973145e-01 5.3423296660184860e-02</leafValues></_>
    <_>
      <internalNodes>
        0 -1 126865 1.0233410284854472e-04</internalNodes>
      <leafValues>
        -1.9791805744171143e-01 2.1490983664989471e-01</leafValues></_>
    <_>
      <internalNodes>
        0 -1 127460 -1.2817012247978710e-05</internalNodes>
      <leafValues>
        2.3755863308906555e-01 -1.8542879819869995e-01</leafValues></_>
    <_>
      <internalNodes>
        0 -1 100562 6.8376961280591786e-05</internalNodes>
      <leafValues>
        -1.8448124825954437e-01 2.5074878334999084e-01</leafValues></_>
    <_>
      <internalNodes>
        0 -1 154681 -4.5313304290175438e-03</internalNodes>
      <leafValues>
        -5.6118714809417725e-01 8.4731452167034149e-02</leafValues></_>
    <_>
      <internalNodes>
        0 -1 138543 2.4246685206890106e-03</internalNodes>
      <leafValues>
        -1.5842773020267487e-01 3.6653262376785278e-01</leafValues></_>
    <_>
      <internalNodes>
        0 -1 153032 -1.6792103648185730e-02</internalNodes>
      <leafValues>
        3.6930152773857117e-01 -1.6330601274967194e-01</leafValues></_>
    <_>
      <internalNodes>
        0 -1 157490 2.6433311868458986e-03</internalNodes>
      <leafValues>
        -1.8651460111141205e-01 2.8173816204071045e-01</leafValues></_>
    <_>
      <internalNodes>
        0 -1 99962 -3.6910199560225010e-03</internalNodes>
      <leafValues>
        -7.0239317417144775e-01 6.6076137125492096e-02</leafValues></_>
    <_>
      <internalNodes>
        0 -1 80751 5.2260402590036392e-03</internalNodes>
      <leafValues>
        9.7937807440757751e-02 -4.3215945363044739e-01</leafValues></_>
    <_>
      <internalNodes>
        0 -1 60358 5.4484826978296041e-04</internalNodes>
      <leafValues>
        1.1464099586009979e-01 -4.3885874748229980e-01</leafValues></_>
    <_>
      <internalNodes>
        0 -1 154395 -1.1173295788466930e-03</internalNodes>
      <leafValues>
        4.1685009002685547e-01 -1.2667503952980042e-01</leafValues></_>
    <_>
      <internalNodes>
        0 -1 107853 -1.0965636372566223e-01</internalNodes>
      <leafValues>
        8.1439572572708130e-01 -5.8521650731563568e-02</leafValues></_>
    <_>
      <internalNodes>
        0 -1 161679 3.0904495361028239e-05</internalNodes>
      <leafValues>
        -2.1191793680191040e-01 2.7025124430656433e-01</leafValues></_>
    <_>
      <internalNodes>
        0 -1 111119 1.0229739127680659e-03</internalNodes>
      <leafValues>
        -1.7554222047328949e-01 3.3330607414245605e-01</leafValues></_>
    <_>
      <internalNodes>
        0 -1 36289 5.3565567359328270e-03</internalNodes>
      <leafValues>
        1.1772556602954865e-01 -5.0741744041442871e-01</leafValues></_>
    <_>
      <internalNodes>
        0 -1 36970 -1.2435079552233219e-03</internalNodes>
      <leafValues>
        3.2658591866493225e-01 -1.6697151958942413e-01</leafValues></_>
    <_>
      <internalNodes>
        0 -1 106844 -1.7751236446201801e-03</internalNodes>
      <leafValues>
        3.1796225905418396e-01 -1.6571485996246338e-01</leafValues></_></weakClassifiers></stage24>
</opencv_storage>
