<?xml version="1.0"?>
<opencv_storage>
<stage29>
  <maxWeakCount>24</maxWeakCount>
  <stageThreshold>-8.2845151424407959e-01</stageThreshold>
  <weakClassifiers>
    <_>
      <internalNodes>
        0 -1 26451 2.2559124231338501e-01</internalNodes>
      <leafValues>
        -3.7261697649955750e-01 6.5217393636703491e-01</leafValues></_>
    <_>
      <internalNodes>
        0 -1 5530 3.9680592715740204e-02</internalNodes>
      <leafValues>
        1.1648443527519703e-02 -1.</leafValues></_>
    <_>
      <internalNodes>
        0 -1 1954 -4.2043559253215790e-02</internalNodes>
      <leafValues>
        3.7166002392768860e-01 -1.1264155060052872e-01</leafValues></_>
    <_>
      <internalNodes>
        0 -1 147773 4.8612598329782486e-03</internalNodes>
      <leafValues>
        5.5194035172462463e-02 -8.0596929788589478e-01</leafValues></_>
    <_>
      <internalNodes>
        0 -1 53560 -5.8241399528924376e-05</internalNodes>
      <leafValues>
        2.3662738502025604e-01 -1.8825469911098480e-01</leafValues></_>
    <_>
      <internalNodes>
        0 -1 114361 -2.8456888685468584e-05</internalNodes>
      <leafValues>
        2.3236222565174103e-01 -1.7422050237655640e-01</leafValues></_>
    <_>
      <internalNodes>
        0 -1 162298 -4.1314223781228065e-03</internalNodes>
      <leafValues>
        -8.0349099636077881e-01 5.0416421145200729e-02</leafValues></_>
    <_>
      <internalNodes>
        0 -1 160439 -1.0125007480382919e-02</internalNodes>
      <leafValues>
        3.4623658657073975e-01 -1.4236728847026825e-01</leafValues></_>
    <_>
      <internalNodes>
        0 -1 20473 -3.4381584264338017e-03</internalNodes>
      <leafValues>
        -5.9558767080307007e-01 7.0796422660350800e-02</leafValues></_>
    <_>
      <internalNodes>
        0 -1 96790 2.4313817266374826e-04</internalNodes>
      <leafValues>
        -1.4131347835063934e-01 3.5006386041641235e-01</leafValues></_>
    <_>
      <internalNodes>
        0 -1 84264 7.9652490094304085e-03</internalNodes>
      <leafValues>
        1.1244048923254013e-01 -4.6394976973533630e-01</leafValues></_>
    <_>
      <internalNodes>
        0 -1 91956 5.1010912284255028e-03</internalNodes>
      <leafValues>
        -1.6145724058151245e-01 3.6733421683311462e-01</leafValues></_>
    <_>
      <internalNodes>
        0 -1 115817 -2.3421321064233780e-02</internalNodes>
      <leafValues>
        5.0186264514923096e-01 -9.6059083938598633e-02</leafValues></_>
    <_>
      <internalNodes>
        0 -1 14491 9.1656678705476224e-05</internalNodes>
      <leafValues>
        -2.2218047082424164e-01 2.3370170593261719e-01</leafValues></_>
    <_>
      <internalNodes>
        0 -1 139255 4.4974219053983688e-03</internalNodes>
      <leafValues>
        -9.8168976604938507e-02 5.9960353374481201e-01</leafValues></_>
    <_>
      <internalNodes>
        0 -1 139641 -3.0448515899479389e-03</internalNodes>
      <leafValues>
        -7.1517682075500488e-01 8.7815225124359131e-02</leafValues></_>
    <_>
      <internalNodes>
        0 -1 64555 -1.1069560050964355e-01</internalNodes>
      <leafValues>
        7.1883779764175415e-01 -8.6084105074405670e-02</leafValues></_>
    <_>
      <internalNodes>
        0 -1 148154 8.0888718366622925e-03</internalNodes>
      <leafValues>
        -6.4737126231193542e-02 5.9313136339187622e-01</leafValues></_>
    <_>
      <internalNodes>
        0 -1 113593 -6.2004467472434044e-03</internalNodes>
      <leafValues>
        4.3871119618415833e-01 -1.0928228497505188e-01</leafValues></_>
    <_>
      <internalNodes>
        0 -1 122929 3.8591264747083187e-03</internalNodes>
      <leafValues>
        9.6835926175117493e-02 -5.3899186849594116e-01</leafValues></_>
    <_>
      <internalNodes>
        0 -1 159599 1.3043135404586792e-03</internalNodes>
      <leafValues>
        -8.2742735743522644e-02 6.6347455978393555e-01</leafValues></_>
    <_>
      <internalNodes>
        0 -1 128040 -2.3909697483759373e-04</internalNodes>
      <leafValues>
        -3.3086392283439636e-01 1.4960652589797974e-01</leafValues></_>
    <_>
      <internalNodes>
        0 -1 115051 4.1009956039488316e-03</internalNodes>
      <leafValues>
        -1.4325319230556488e-01 3.9668759703636169e-01</leafValues></_>
    <_>
      <internalNodes>
        0 -1 150288 -1.1001965031027794e-03</internalNodes>
      <leafValues>
        5.9318059682846069e-01 -8.8768124580383301e-02</leafValues></_></weakClassifiers></stage29>
</opencv_storage>
