<?xml version="1.0"?>
<opencv_storage>
<stage32>
  <maxWeakCount>22</maxWeakCount>
  <stageThreshold>-9.7644382715225220e-01</stageThreshold>
  <weakClassifiers>
    <_>
      <internalNodes>
        0 -1 97698 -1.3505585491657257e-02</internalNodes>
      <leafValues>
        -3.8819319009780884e-01 4.1463413834571838e-01</leafValues></_>
    <_>
      <internalNodes>
        0 -1 106124 -8.7424041703343391e-03</internalNodes>
      <leafValues>
        2.1971831098198891e-02 -8.1846100091934204e-01</leafValues></_>
    <_>
      <internalNodes>
        0 -1 118294 -3.1417421996593475e-02</internalNodes>
      <leafValues>
        -2.4435162544250488e-02 9.0747308731079102e-01</leafValues></_>
    <_>
      <internalNodes>
        0 -1 66638 -2.0800492167472839e-01</internalNodes>
      <leafValues>
        4.9387972801923752e-02 -6.6043704748153687e-01</leafValues></_>
    <_>
      <internalNodes>
        0 -1 94689 -2.3668551445007324e-01</internalNodes>
      <leafValues>
        -9.9535487592220306e-02 6.0070592164993286e-01</leafValues></_>
    <_>
      <internalNodes>
        0 -1 75232 -7.6959237456321716e-02</internalNodes>
      <leafValues>
        2.3484463989734650e-01 -2.6479509472846985e-01</leafValues></_>
    <_>
      <internalNodes>
        0 -1 162094 6.9025682751089334e-04</internalNodes>
      <leafValues>
        1.1890224367380142e-01 -4.7675108909606934e-01</leafValues></_>
    <_>
      <internalNodes>
        0 -1 146409 -2.1992260590195656e-02</internalNodes>
      <leafValues>
        -4.1915836930274963e-01 1.4478285610675812e-01</leafValues></_>
    <_>
      <internalNodes>
        0 -1 60124 -2.4659819900989532e-03</internalNodes>
      <leafValues>
        7.2953051328659058e-01 -9.5102474093437195e-02</leafValues></_>
    <_>
      <internalNodes>
        0 -1 65554 2.1685383399017155e-04</internalNodes>
      <leafValues>
        -1.7182789742946625e-01 3.2313880324363708e-01</leafValues></_>
    <_>
      <internalNodes>
        0 -1 2494 -6.7850695922970772e-03</internalNodes>
      <leafValues>
        -8.5671836137771606e-01 8.7788246572017670e-02</leafValues></_>
    <_>
      <internalNodes>
        0 -1 97919 4.2270268313586712e-03</internalNodes>
      <leafValues>
        -1.3301670551300049e-01 4.5872932672500610e-01</leafValues></_>
    <_>
      <internalNodes>
        0 -1 144370 6.5760510042309761e-03</internalNodes>
      <leafValues>
        -1.2275488674640656e-01 4.2694857716560364e-01</leafValues></_>
    <_>
      <internalNodes>
        0 -1 38830 -1.2507604435086250e-02</internalNodes>
      <leafValues>
        3.1601744890213013e-01 -2.0084212720394135e-01</leafValues></_>
    <_>
      <internalNodes>
        0 -1 139316 -2.1021193824708462e-03</internalNodes>
      <leafValues>
        -6.0592198371887207e-01 9.9731795489788055e-02</leafValues></_>
    <_>
      <internalNodes>
        0 -1 2197 5.6724539026618004e-03</internalNodes>
      <leafValues>
        -1.4128692448139191e-01 4.2301070690155029e-01</leafValues></_>
    <_>
      <internalNodes>
        0 -1 100600 -5.1620649173855782e-04</internalNodes>
      <leafValues>
        -2.3400598764419556e-01 2.5160413980484009e-01</leafValues></_>
    <_>
      <internalNodes>
        0 -1 149866 7.2242715395987034e-04</internalNodes>
      <leafValues>
        -9.7004614770412445e-02 6.0530382394790649e-01</leafValues></_>
    <_>
      <internalNodes>
        0 -1 154528 -6.3961691921576858e-05</internalNodes>
      <leafValues>
        2.9204472899436951e-01 -2.1361778676509857e-01</leafValues></_>
    <_>
      <internalNodes>
        0 -1 100097 -1.4627050404669717e-05</internalNodes>
      <leafValues>
        2.1914845705032349e-01 -2.5872075557708740e-01</leafValues></_>
    <_>
      <internalNodes>
        0 -1 20944 2.9513575136661530e-03</internalNodes>
      <leafValues>
        -6.5671131014823914e-02 7.6578372716903687e-01</leafValues></_>
    <_>
      <internalNodes>
        0 -1 79329 9.0385618386790156e-04</internalNodes>
      <leafValues>
        1.1903294175863266e-01 -5.1323497295379639e-01</leafValues></_></weakClassifiers></stage32>
</opencv_storage>
