<?xml version="1.0"?>
<opencv_storage>
<stage15>
  <maxWeakCount>19</maxWeakCount>
  <stageThreshold>-1.1488963365554810e+00</stageThreshold>
  <weakClassifiers>
    <_>
      <internalNodes>
        0 -1 89805 8.2738380879163742e-03</internalNodes>
      <leafValues>
        -4.3190661072731018e-01 2.5581395626068115e-01</leafValues></_>
    <_>
      <internalNodes>
        0 -1 11888 -1.9889520481228828e-03</internalNodes>
      <leafValues>
        4.3024305254220963e-02 -9.2006176710128784e-01</leafValues></_>
    <_>
      <internalNodes>
        0 -1 157471 -3.2395198941230774e-03</internalNodes>
      <leafValues>
        9.4393640756607056e-02 -7.2697436809539795e-01</leafValues></_>
    <_>
      <internalNodes>
        0 -1 162100 -1.0443916107760742e-04</internalNodes>
      <leafValues>
        -3.8214230537414551e-01 1.6036197543144226e-01</leafValues></_>
    <_>
      <internalNodes>
        0 -1 107431 -1.0369432857260108e-03</internalNodes>
      <leafValues>
        7.4821621179580688e-02 -8.9609438180923462e-01</leafValues></_>
    <_>
      <internalNodes>
        0 -1 34524 -1.9568379968404770e-02</internalNodes>
      <leafValues>
        -6.0194581747055054e-01 9.5068983733654022e-02</leafValues></_>
    <_>
      <internalNodes>
        0 -1 12171 9.2521563172340393e-02</internalNodes>
      <leafValues>
        -1.1822281777858734e-01 7.1949458122253418e-01</leafValues></_>
    <_>
      <internalNodes>
        0 -1 162261 7.2084278799593449e-03</internalNodes>
      <leafValues>
        1.0353542864322662e-01 -7.6022112369537354e-01</leafValues></_>
    <_>
      <internalNodes>
        0 -1 161449 5.4128225892782211e-03</internalNodes>
      <leafValues>
        7.1257732808589935e-02 -7.3944228887557983e-01</leafValues></_>
    <_>
      <internalNodes>
        0 -1 108360 -2.1449904888868332e-02</internalNodes>
      <leafValues>
        -7.0278584957122803e-01 7.6673164963722229e-02</leafValues></_>
    <_>
      <internalNodes>
        0 -1 43918 -8.6739240214228630e-03</internalNodes>
      <leafValues>
        -6.4503985643386841e-01 8.0691158771514893e-02</leafValues></_>
    <_>
      <internalNodes>
        0 -1 143363 2.1588173694908619e-03</internalNodes>
      <leafValues>
        8.2944147288799286e-02 -7.1526062488555908e-01</leafValues></_>
    <_>
      <internalNodes>
        0 -1 11945 1.7880905419588089e-02</internalNodes>
      <leafValues>
        6.5526694059371948e-02 -7.3556351661682129e-01</leafValues></_>
    <_>
      <internalNodes>
        0 -1 49459 -2.2465173969976604e-04</internalNodes>
      <leafValues>
        -3.5422024130821228e-01 1.8545792996883392e-01</leafValues></_>
    <_>
      <internalNodes>
        0 -1 75715 6.7595561267808080e-04</internalNodes>
      <leafValues>
        -1.3639180362224579e-01 5.6570190191268921e-01</leafValues></_>
    <_>
      <internalNodes>
        0 -1 61210 -8.9361652731895447e-02</internalNodes>
      <leafValues>
        4.8249611258506775e-01 -1.1649818718433380e-01</leafValues></_>
    <_>
      <internalNodes>
        0 -1 156031 -6.5098544582724571e-03</internalNodes>
      <leafValues>
        7.7917829155921936e-02 -7.8586977720260620e-01</leafValues></_>
    <_>
      <internalNodes>
        0 -1 73614 -2.9309979081153870e-01</internalNodes>
      <leafValues>
        8.1854504346847534e-01 -9.6521772444248199e-02</leafValues></_>
    <_>
      <internalNodes>
        0 -1 18203 -3.1033186241984367e-03</internalNodes>
      <leafValues>
        -5.0880622863769531e-01 1.3979732990264893e-01</leafValues></_></weakClassifiers></stage15>
</opencv_storage>
