<?xml version="1.0"?>
<opencv_storage>
<stage7>
  <maxWeakCount>10</maxWeakCount>
  <stageThreshold>-1.1134997606277466e+00</stageThreshold>
  <weakClassifiers>
    <_>
      <internalNodes>
        0 -1 8777 -3.4211894869804382e-01</internalNodes>
      <leafValues>
        -6.7472529411315918e-01 7.3793101310729980e-01</leafValues></_>
    <_>
      <internalNodes>
        0 -1 31518 -5.9820687770843506e-01</internalNodes>
      <leafValues>
        -4.3880751729011536e-01 3.8360109925270081e-01</leafValues></_>
    <_>
      <internalNodes>
        0 -1 128040 3.8876733742654324e-04</internalNodes>
      <leafValues>
        1.7664918303489685e-01 -5.6505495309829712e-01</leafValues></_>
    <_>
      <internalNodes>
        0 -1 131208 -4.4263235758990049e-04</internalNodes>
      <leafValues>
        5.7001209259033203e-01 -1.7818431556224823e-01</leafValues></_>
    <_>
      <internalNodes>
        0 -1 55541 4.4397162128007039e-05</internalNodes>
      <leafValues>
        -3.4593328833580017e-01 3.2690578699111938e-01</leafValues></_>
    <_>
      <internalNodes>
        0 -1 62213 -1.8477921187877655e-01</internalNodes>
      <leafValues>
        -1.2788739800453186e-01 7.7772420644760132e-01</leafValues></_>
    <_>
      <internalNodes>
        0 -1 135430 -1.1043324775528163e-04</internalNodes>
      <leafValues>
        3.6751437187194824e-01 -2.8394523262977600e-01</leafValues></_>
    <_>
      <internalNodes>
        0 -1 122719 3.7158258259296417e-02</internalNodes>
      <leafValues>
        -1.5176239609718323e-01 7.1960771083831787e-01</leafValues></_>
    <_>
      <internalNodes>
        0 -1 514 7.2676062583923340e-02</internalNodes>
      <leafValues>
        -1.6253590583801270e-01 5.9801453351974487e-01</leafValues></_>
    <_>
      <internalNodes>
        0 -1 70646 -1.3910054985899478e-04</internalNodes>
      <leafValues>
        4.2217278480529785e-01 -2.3177972435951233e-01</leafValues></_></weakClassifiers></stage7>
</opencv_storage>
